-0.025510, 0.118760, -0.110970, -0.007780, 0.150230, -0.096640, -0.036090, -0.024070, 0.002450, 0.059800,
0.012150, 0.047470, 0.020370, 0.057580, 0.051850, -0.015530, 0.055340, -0.056640, 0.042050, 0.090320,
-0.008240, -0.006230, 0.000740, 0.000060, 0.036060, -0.054060, 0.047110, 0.021210, 0.046680, 0.147550,
0.063720, 0.023560, -0.068210, -0.012160, 0.079090, -0.009950, 0.029910, -0.036360, 0.097290, -0.053030,
0.028930, 0.040070, -0.079540, 0.050270, 0.010290, 0.020170, 0.007440, -0.004770, 0.002670, -0.060930,
-0.056520, 0.072600, 0.089250, -0.057170, 0.077670, 0.017560, -0.075480, 0.011450, 0.007670, 0.112630,
-0.079370, 0.055500, -0.056540, -0.008400, -0.004620, 0.058460, -0.078630, -0.141270, 0.044540, 0.075450,
0.028150, 0.012580, -0.004510, 0.002680, -0.114540, -0.115420, -0.062950, -0.028090, -0.027940, 0.055150,
-0.078880, -0.049520, 0.106670, 0.014310, -0.017830, -0.034760, 0.160940, -0.101860, 0.059380, 0.078050,
0.018480, 0.023650, -0.033080, -0.002130, 0.158760, 0.041000, 0.039050, -0.002800, -0.002100, -0.021110,
-0.103540, 0.098440, 0.127950, 0.001940, 0.134500, -0.122040, 0.001240, 0.147470, 0.107230, 0.028870,
-0.012570, 0.100480, -0.024270, 0.045100, 0.046760, 0.026930, 0.036820, 0.028070, 0.037620, 0.063480,
0.069540, 0.020620, 0.003600, -0.003470, 0.011150, -0.156500, 0.042100, 0.022520, -0.009600, 0.079000,
-0.031440, -0.123360, 0.272600, -0.104390, -0.061560, -0.108660, 0.109270, -0.096200, 0.031880, 0.185960,
0.108010, 0.013190, -0.048810, -0.004940, 0.003820, 0.054080, -0.004790, 0.003620, -0.002590, -0.144150,
-0.242060, -0.159280, 0.079750, 0.000350, 0.033710, -0.102910, -0.044630, 0.499350, 0.054790, -0.061890,
-0.134390, 0.072660, 0.006090, -0.028550, 0.303540, 0.046440, 0.021880, -0.059100, 0.052020, -0.016820,
0.016460, 0.043040, -0.004480, 0.004700, 0.068110, -0.291370, -0.045790, 0.158680, -0.009500, 0.014960,
-0.149400, -0.125060, 0.538250, 0.073460, -0.094540, -0.228590, 0.023400, 0.000650, 0.064170, 0.420750,
0.158350, 0.019890, -0.044860, -0.036310, 0.033280, 0.021050, 0.002010, 0.001200, 0.003330, 0.117570,
-0.280790, 0.068850, 0.408560, 0.241730, 0.256880, -0.058270, -0.114580, 0.681520, 0.322590, -0.083050,
-0.108800, -0.009360, 0.174090, 0.102040, 0.627820, 0.437830, 0.367090, 0.109550, 0.039710, 0.141570,
0.032340, 0.000520, 0.004710, -0.003180, 0.327630, -0.325830, -0.060540, 0.218140, 0.200840, 0.160720,
-0.243410, -0.169010, 0.595650, 0.051900, -0.128400, -0.180090, -0.074180, -0.134330, -0.017540, 1.034880,
0.306270, 0.232810, 0.113620, -0.025570, 0.030190, 0.062880, -0.023040, 0.001080, 0.003270, 0.226700,
-0.362750, -0.196060, 0.059370, 0.250210, 0.064810, -0.204530, -0.073410, 0.170300, -0.066320, -0.117300,
-0.216420, -0.139210, -0.141040, -0.053680, 1.055450, 0.246470, 0.259310, -0.056050, 0.008020, 0.180690,
0.025840, 0.010000, 0.004810, 0.000850, 0.271100, -0.283160, -0.124520, 0.099960, 0.262700, 0.104700,
-0.028250, -0.028020, 0.114060, -0.007980, -0.082990, -0.254620, -0.082320, -0.217580, 0.038720, 0.652090,
0.078090, 0.269270, -0.141430, -0.006450, 0.142950, 0.014150, 0.018220, 0.002660, -0.003780, 0.221470,
-0.219570, -0.160550, -0.041800, 0.079400, 0.107720, -0.141310, 0.014550, 0.036130, -0.101900, -0.109020,
-0.249940, -0.123770, -0.181410, 0.045880, 0.546360, 0.122930, 0.111960, -0.075590, 0.028820, 0.162620,
-0.020670, -0.054140, 0.001680, -0.000750, 0.227440, -0.210780, -0.164320, -0.049330, 0.061190, 0.075350,
-0.075610, -0.029900, 0.055510, -0.154820, -0.127930, -0.219600, -0.212910, -0.064570, -0.030250, 0.228500,
0.063130, 0.100310, 0.051840, -0.071680, 0.105810, 0.020410, 0.004220, -0.000780, -0.001840, 0.268910,
-0.135890, -0.049650, -0.094080, 0.107520, 0.159450, -0.050790, 0.015040, 0.027000, 0.024770, 0.028120,
-0.152880, -0.144370, -0.045530, -0.056790, 0.139250, 0.083530, 0.077220, 0.014310, -0.028130, 0.046550,
0.031920, 0.006240, 0.002610, 0.004800, 0.341720, -0.012070, -0.045260, 0.015920, 0.128720, 0.170880,
0.061430, -0.046330, 0.064630, 0.023400, -0.092750, -0.064920, -0.044010, -0.027170, 0.043460, 0.120190,
0.048490, 0.068840, 0.072500, -0.035740, 0.061920, -0.007950, 0.026590, -0.001400, 0.001280, 0.303810,
0.049510, 0.022730, 0.154400, 0.046530, 0.162870, -0.123020, -0.046860, 0.076230, 0.061980, 0.017230,
-0.067830, -0.053110, 0.035750, -0.034300, 0.063430, 0.128180, 0.081710, 0.041540, 0.086000, 0.058590,
0.004340, 0.040460, 0.002810, 0.004740, 0.141320,
0.040590, 0.018470, 0.019150, 0.022190, 0.009200, 0.015060, 0.026120, 0.031270, 0.008610, 0.029430,
0.045070, 0.027140, 0.010960, 0.020070, 0.020460, 0.028190, 0.027740, 0.007230, 0.018510, 0.038470,
-0.001480, 0.003320, -0.001110, -0.000600, 0.021320, 0.040040, 0.022130, 0.021570, 0.020290, 0.012380,
0.016680, 0.029460, 0.031890, 0.010240, 0.031800, 0.046250, 0.026080, 0.014640, 0.020430, 0.023820,
0.024590, 0.024600, 0.006920, 0.024030, 0.040980, -0.000880, -0.004200, 0.000750, -0.004000, 0.016880,
0.035470, 0.021180, 0.019050, 0.025130, 0.009510, 0.015750, 0.027370, 0.028550, 0.010460, 0.031580,
0.049500, 0.025510, 0.008580, 0.026550, 0.025700, 0.027030, 0.027330, 0.012290, 0.021000, 0.043460,
0.002890, -0.000010, -0.003730, 0.000300, 0.021140, 0.041610, 0.021870, 0.019680, 0.025150, 0.015900,
0.012300, 0.027790, 0.028450, 0.008660, 0.033260, 0.049370, 0.027670, 0.015970, 0.024450, 0.025270,
0.028670, 0.022910, 0.014660, 0.022960, 0.040950, 0.002050, -0.000470, 0.002900, 0.004730, 0.021080,
0.037590, 0.024530, 0.023390, 0.025590, 0.015820, 0.017630, 0.024230, 0.030620, 0.009590, 0.032250,
0.049630, 0.029690, 0.008640, 0.024530, 0.026050, 0.031640, 0.025480, 0.009440, 0.018820, 0.036930,
-0.002510, 0.000110, -0.003700, 0.002170, 0.019710, 0.034560, 0.020430, 0.024770, 0.025980, 0.010260,
0.018070, 0.031010, 0.032440, 0.014690, 0.024870, 0.043450, 0.024890, 0.005180, 0.019550, 0.032170,
0.035310, 0.024580, 0.004710, 0.020750, 0.030460, -0.004340, 0.000540, 0.001100, 0.000030, 0.019490,
0.028670, 0.020120, 0.030510, 0.038070, 0.010330, 0.013820, 0.032130, 0.044850, 0.011250, 0.018790,
0.036420, 0.031590, 0.009360, 0.016280, 0.039960, 0.039250, 0.028490, 0.006110, 0.012630, 0.022060,
-0.003000, 0.001150, 0.004890, -0.004170, 0.012430, 0.029780, 0.025640, 0.036870, 0.044190, 0.011270,
0.013980, 0.031810, 0.065000, 0.009820, 0.010060, 0.023930, 0.028390, 0.005310, 0.008490, 0.048610,
0.040570, 0.029640, 0.003370, 0.008930, 0.009010, 0.004290, 0.004520, 0.004920, -0.004430, 0.011320,
0.035260, 0.025190, 0.045260, 0.054760, 0.008220, 0.022630, 0.033450, 0.080350, 0.014130, 0.001000,
0.018200, 0.030560, 0.007590, 0.011170, 0.060690, 0.048070, 0.032260, 0.002400, 0.008280, -0.001950,
-0.004260, -0.000310, 0.002720, -0.002190, 0.018870, 0.029110, 0.023330, 0.030320, 0.044800, 0.008810,
0.020100, 0.030570, 0.069150, 0.008790, 0.003430, 0.016510, 0.031420, 0.007930, 0.010630, 0.059210,
0.041730, 0.027920, 0.006660, 0.008370, 0.010260, -0.001390, 0.001670, 0.000210, 0.002350, 0.019410,
0.028660, 0.018160, 0.026120, 0.038010, 0.012670, 0.015820, 0.028400, 0.048860, 0.009480, 0.016520,
0.021400, 0.028390, 0.007670, 0.017670, 0.046820, 0.033100, 0.028200, 0.004530, 0.014920, 0.018700,
0.002310, -0.001160, -0.003490, -0.003240, 0.017090, 0.031610, 0.020650, 0.022190, 0.029450, 0.009470,
0.016240, 0.031920, 0.036860, 0.012260, 0.024260, 0.034810, 0.022480, 0.010740, 0.021750, 0.042340,
0.035550, 0.029560, 0.008420, 0.019850, 0.030020, -0.004440, -0.004900, -0.002280, -0.003800, 0.019150,
0.032460, 0.017330, 0.020650, 0.028930, 0.011090, 0.020210, 0.031170, 0.026370, 0.014530, 0.032520,
0.041360, 0.020020, 0.006140, 0.021440, 0.034380, 0.027400, 0.032760, 0.008210, 0.024490, 0.043260,
-0.001970, 0.003240, 0.003540, 0.002540, 0.014350, 0.036560, 0.016560, 0.016290, 0.025040, 0.012550,
0.018200, 0.027960, 0.025390, 0.008560, 0.034970, 0.047170, 0.022670, 0.007710, 0.022580, 0.025120,
0.029690, 0.032430, 0.004700, 0.020800, 0.044850, -0.001680, -0.003110, -0.001700, -0.000640, 0.017940,
0.035040, 0.024960, 0.019720, 0.024650, 0.011170, 0.019430, 0.026680, 0.023430, 0.014980, 0.033610,
0.043500, 0.024010, 0.009860, 0.025360, 0.026010, 0.032100, 0.030360, 0.007450, 0.019730, 0.040840,
-0.002030, -0.003310, 0.001950, 0.004190, 0.016710, 0.044500, 0.019020, 0.017580, 0.030870, 0.013530,
0.017710, 0.027170, 0.031290, 0.015910, 0.033540, 0.046410, 0.025990, 0.011510, 0.025030, 0.026030,
0.034330, 0.026860, 0.012800, 0.021320, 0.040810, -0.003200, -0.003220, 0.003620, -0.001260, 0.020990,
0.042070, 0.021040, 0.018270, 0.029570, 0.009230, 0.015370, 0.030590, 0.032370, 0.012090, 0.029410,
0.046050, 0.020770, 0.013700, 0.024690, 0.022560, 0.029400, 0.024310, 0.011800, 0.018860, 0.038220,
0.002430, 0.000000, -0.000340, 0.003890, 0.023670,
0.100810, -0.061890, -0.075170, -0.041590, -0.010750, 0.052000, -0.047620, -0.034850, -0.003380, 0.027500,
0.051690, 0.009720, 0.074450, 0.039520, -0.095250, 0.060440, -0.118180, -0.036540, -0.015150, 0.074090,
-0.105630, 0.008280, -0.001450, -0.003830, 0.049530, 0.049990, -0.008000, -0.056070, -0.078480, -0.076830,
-0.057500, -0.054010, -0.070740, 0.069580, 0.001110, 0.056100, -0.056920, 0.155420, 0.090520, 0.059170,
0.065400, 0.008500, -0.131010, 0.055690, 0.082860, 0.004190, -0.016610, 0.003500, -0.000990, 0.091860,
-0.012740, 0.008580, -0.098580, -0.078300, -0.051300, -0.009830, 0.058600, -0.003820, 0.055940, -0.006380,
0.035080, -0.051000, 0.081640, 0.064670, 0.047140, 0.047520, 0.014890, 0.092840, -0.043050, 0.103000,
0.014680, 0.006940, -0.001030, -0.002850, -0.053720, 0.049240, 0.022770, -0.075780, -0.067270, 0.017030,
-0.041810, 0.029330, -0.090000, 0.041390, 0.045950, 0.069710, -0.071540, -0.057870, 0.082010, 0.063830,
-0.025550, -0.004150, 0.152430, -0.035970, 0.065160, 0.052210, -0.006440, 0.001980, -0.004410, 0.022340,
0.048860, 0.148660, -0.038220, 0.042350, 0.101080, -0.088110, 0.014860, -0.090580, 0.033380, 0.047760,
0.080630, -0.015200, 0.005150, 0.091170, 0.011660, 0.003330, -0.113820, 0.080160, 0.006250, -0.013650,
-0.008130, 0.012900, 0.000810, 0.002610, 0.022940, -0.098510, 0.065580, 0.039440, 0.051230, 0.043840,
0.015010, 0.007180, -0.158740, 0.052300, -0.109900, -0.025680, 0.046430, 0.005280, -0.071260, 0.162650,
0.006880, -0.112700, -0.008590, -0.014100, -0.097680, -0.038950, -0.071840, -0.002040, -0.001800, -0.141230,
-0.144850, 0.021120, 0.091640, 0.134250, 0.049690, 0.063710, -0.048750, -0.049170, -0.023770, -0.224720,
-0.150890, 0.057350, -0.040250, -0.169290, 0.269400, 0.099210, -0.008360, -0.086820, -0.124090, -0.260230,
-0.048370, -0.012670, -0.003520, -0.003300, -0.413640, -0.068660, -0.038900, 0.309390, 0.222720, -0.094330,
-0.063920, -0.004060, 0.232750, 0.094280, -0.476650, -0.182020, -0.013910, -0.129960, -0.143370, 0.466100,
0.037750, -0.011230, -0.220140, -0.115540, -0.364670, -0.052140, -0.005710, -0.003850, -0.002580, -0.343970,
-0.229840, -0.101120, 0.401030, 0.403070, -0.056040, -0.139170, -0.141740, 0.483760, -0.018380, -0.481580,
-0.279080, 0.018950, -0.075540, -0.248470, 0.582980, 0.186690, -0.053500, -0.199650, -0.297170, -0.520010,
-0.108810, 0.012540, -0.003380, 0.004170, -0.453060, -0.303600, -0.075740, 0.157570, 0.192190, -0.123870,
-0.104410, -0.186710, 0.255350, -0.010070, -0.467000, -0.360770, 0.044000, -0.237860, -0.270760, 0.677710,
0.042320, -0.089500, -0.206210, -0.267330, -0.442150, -0.056410, -0.008300, 0.001410, -0.004810, -0.332950,
-0.231380, 0.037300, 0.134320, 0.106860, -0.102760, -0.088420, 0.023020, 0.049330, -0.016920, -0.195830,
-0.189040, -0.022450, -0.316830, -0.141270, 0.458050, 0.026070, 0.027150, 0.007760, -0.098470, -0.174120,
0.024020, -0.047340, 0.000330, -0.003180, -0.272980, -0.275640, -0.077520, 0.008380, 0.027830, -0.007530,
-0.048640, 0.104540, -0.055430, 0.024950, -0.147760, -0.169590, -0.115620, -0.062110, -0.035710, 0.393980,
0.107160, 0.156720, -0.084520, -0.021820, 0.005820, 0.027160, -0.031740, 0.003480, 0.002130, -0.180550,
-0.150430, -0.005850, -0.163830, 0.087430, 0.068950, 0.023570, 0.010100, -0.182050, 0.081080, -0.025480,
-0.101600, -0.176770, 0.017730, 0.017450, 0.321830, 0.015850, 0.057000, 0.011720, -0.024050, 0.079450,
0.009540, -0.026550, 0.004040, -0.000780, 0.035290, -0.167670, 0.010110, -0.026840, 0.047610, 0.197930,
0.045500, -0.009240, -0.090210, 0.000180, 0.098860, -0.026540, -0.090500, 0.082830, -0.037430, 0.044560,
-0.030580, 0.017130, -0.108250, -0.028920, 0.033260, 0.011680, 0.020760, 0.004840, 0.000350, 0.056950,
-0.131400, -0.060180, 0.006760, 0.028590, 0.035640, 0.057810, -0.000760, -0.043190, -0.060600, -0.002160,
-0.081210, -0.089120, -0.131790, -0.008630, 0.001910, 0.080720, 0.014990, 0.007100, -0.021530, 0.164110,
0.018630, -0.004110, 0.002150, -0.002450, 0.082770, 0.022290, -0.061600, -0.022720, -0.043340, 0.039810,
-0.027970, 0.024320, 0.010770, -0.013190, 0.001960, -0.066290, -0.190780, -0.021790, 0.007900, 0.013360,
-0.059500, 0.076070, 0.039680, -0.107460, 0.043010, 0.039090, -0.010460, -0.003900, -0.003010, 0.049790,
0.025070, -0.102530, 0.017790, 0.048360, 0.013110, 0.018290, -0.052970, -0.029160, -0.054290, -0.031670,
-0.061070, -0.093280, 0.005530, 0.101690, 0.036830, -0.049160, -0.009070, 0.045830, -0.064780, 0.027440,
0.004310, 0.054170, -0.000500, -0.003780, 0.109680,
-0.033830, -0.065070, 0.057810, -0.046260, 0.131560, 0.096330, 0.088030, 0.046270, 0.070060, 0.070020,
0.050690, 0.123460, -0.040490, 0.056500, 0.089270, -0.045240, 0.013990, 0.016080, 0.137820, 0.021710,
-0.057030, 0.005240, 0.002550, -0.000840, 0.079220, -0.006570, 0.172160, 0.001710, -0.114690, 0.127620,
-0.006700, 0.088660, 0.011420, 0.123740, -0.021290, 0.069310, 0.122230, -0.066580, 0.037700, 0.040190,
-0.082770, 0.038590, 0.065490, 0.017740, 0.129250, -0.023790, -0.065520, -0.000690, -0.001220, 0.021930,
0.079630, 0.068270, -0.074040, 0.012300, 0.149000, 0.095210, 0.019920, -0.044010, -0.015050, 0.019320,
0.067980, -0.040490, 0.116910, -0.062480, 0.137200, -0.078550, 0.094860, 0.055330, 0.029810, 0.048540,
-0.027400, -0.025440, -0.001590, -0.002070, 0.024720, 0.032230, 0.067440, -0.052210, 0.048400, 0.072750,
0.033280, 0.036580, -0.095790, 0.097080, -0.037330, 0.098980, -0.107720, 0.119980, 0.027540, 0.071370,
-0.054350, -0.085110, 0.037970, 0.014530, 0.104560, -0.028920, -0.003960, -0.001510, 0.004670, -0.157650,
0.009560, -0.025430, -0.000140, 0.114540, -0.027610, 0.027930, -0.096650, -0.076040, 0.035040, 0.047820,
-0.002810, -0.036240, -0.053100, 0.007800, 0.198640, -0.018880, -0.040490, -0.072380, -0.053110, 0.020640,
-0.025060, -0.056850, 0.001510, 0.004420, -0.061350, 0.068270, 0.027140, -0.024390, 0.103330, -0.012850,
-0.092520, -0.048500, 0.016850, 0.102360, -0.101880, 0.003350, 0.059360, -0.166370, -0.089130, 0.290940,
0.089250, -0.145110, -0.216850, -0.035640, -0.068670, -0.049150, -0.015040, 0.003940, -0.003090, -0.175090,
-0.095870, 0.087050, 0.083180, 0.196930, 0.044070, -0.086030, -0.062810, 0.173970, 0.040590, -0.273290,
-0.147930, 0.186470, -0.249000, -0.105010, 0.299640, 0.214570, -0.033630, -0.102010, -0.134760, -0.121890,
0.016480, 0.007530, 0.000400, -0.002740, -0.254280, -0.055550, -0.016320, 0.336750, 0.453610, -0.012680,
-0.026140, 0.058230, 0.509730, 0.088900, -0.330710, -0.126210, 0.075660, -0.128490, -0.200590, 0.546310,
0.280750, -0.090120, -0.192360, -0.244350, -0.406280, 0.063700, -0.000680, -0.002260, -0.001570, -0.325860,
-0.175430, 0.079310, 0.530080, 0.669640, 0.222600, -0.040080, 0.003360, 0.767650, 0.069840, -0.446370,
-0.190520, 0.094570, -0.162380, -0.322710, 1.082360, 0.515980, 0.155610, -0.014840, -0.239690, -0.453670,
-0.058850, 0.025660, -0.000750, 0.003940, -0.208820, -0.396720, 0.044620, 0.247160, 0.406510, -0.050710,
-0.165050, -0.151570, 0.434790, -0.001550, -0.402640, -0.317620, 0.088420, -0.114850, -0.255960, 1.078770,
0.313130, 0.081430, -0.320720, -0.236600, -0.377790, -0.024530, 0.002860, -0.002060, -0.001900, -0.192160,
-0.333660, 0.021950, 0.035680, 0.216740, 0.034390, -0.129040, -0.015390, 0.025370, 0.170410, -0.280290,
-0.346870, -0.029910, -0.061460, -0.200480, 0.788610, 0.148660, -0.029640, -0.034760, -0.165550, -0.301570,
-0.083230, 0.002030, -0.001280, -0.002700, -0.130940, -0.300820, -0.035740, -0.039200, 0.097490, 0.068450,
-0.143870, 0.127640, 0.054090, 0.042140, -0.124280, -0.236540, -0.111320, -0.209590, -0.102350, 0.464400,
0.169530, 0.083340, 0.089070, -0.110090, -0.034550, 0.015130, 0.026210, -0.000890, -0.004170, -0.170040,
-0.110030, -0.051010, -0.015650, 0.071030, 0.118680, -0.057310, 0.027180, 0.041660, 0.066320, 0.064690,
-0.113040, -0.222280, -0.160880, -0.049710, 0.212090, 0.026940, 0.111580, 0.011690, -0.038710, 0.063560,
-0.042300, 0.001820, -0.000540, 0.004650, 0.179710, -0.154000, -0.035880, -0.044890, 0.073680, 0.142000,
-0.088720, 0.076630, -0.000620, -0.007980, 0.081770, -0.027030, -0.114750, -0.122860, 0.074800, 0.119410,
0.111040, 0.134250, -0.061210, -0.037540, 0.065240, -0.079680, 0.002720, 0.002260, 0.004650, 0.204740,
-0.071250, -0.082800, 0.074890, 0.062930, -0.012440, -0.047660, 0.038450, -0.081840, -0.064150, 0.025140,
-0.081970, -0.034320, -0.173730, 0.026110, 0.140140, 0.051780, 0.015110, -0.147640, -0.116440, 0.012800,
-0.003510, 0.025380, 0.002820, -0.000730, 0.334260, -0.069320, -0.106740, -0.144730, 0.026090, 0.018280,
-0.015580, -0.021150, -0.014030, 0.004150, -0.015570, -0.127790, -0.113100, -0.011180, -0.114910, 0.038820,
-0.017870, 0.046860, -0.024420, -0.063800, 0.013010, -0.025170, -0.035480, -0.003010, -0.002080, 0.285440,
-0.054710, -0.192920, -0.107530, 0.085790, 0.108880, 0.047690, -0.007970, -0.021230, -0.058470, -0.000960,
0.003900, -0.107210, 0.051620, 0.002870, 0.102930, 0.011650, 0.014970, 0.002570, 0.031830, 0.025590,
-0.055800, 0.023000, 0.001560, -0.000690, 0.170070,
0.016620, 0.030760, -0.005760, 0.014540, 0.004140, -0.010500, 0.009180, 0.046070, 0.012970, 0.019560,
0.024410, 0.022390, 0.002370, -0.036890, 0.023930, 0.018920, 0.006240, -0.006550, 0.005060, 0.031340,
0.000910, 0.003330, 0.002720, 0.001020, -0.000250, -0.012380, 0.026480, 0.017400, 0.019510, 0.014880,
0.017630, 0.028960, 0.064650, 0.002070, 0.007270, -0.012510, 0.025660, 0.024760, -0.018380, 0.010520,
-0.000290, -0.002750, 0.013890, -0.027720, 0.033690, 0.004470, 0.003400, 0.000700, -0.004270, -0.001020,
0.023820, 0.003170, 0.021120, 0.002080, 0.012750, -0.036920, 0.007740, 0.011510, 0.001730, 0.014930,
0.043510, 0.041940, 0.017280, 0.003600, 0.013550, 0.006330, 0.015330, 0.003620, -0.011040, 0.038830,
0.003730, 0.001800, -0.000660, 0.000860, 0.004650, 0.038460, 0.012940, -0.027760, 0.010220, -0.005300,
-0.009310, 0.007550, 0.048910, -0.003460, 0.027130, -0.011110, 0.027660, 0.016940, 0.020070, 0.030530,
0.018600, -0.008970, 0.027370, -0.003440, 0.039950, 0.003590, -0.001500, -0.001450, -0.002460, -0.000060,
0.012710, 0.030510, -0.008040, 0.026340, 0.008360, 0.032660, 0.001490, 0.016760, 0.008920, 0.008370,
0.042810, 0.040500, 0.032920, -0.000590, 0.038020, -0.001880, 0.002380, 0.001750, 0.020390, 0.008000,
0.002480, 0.001050, 0.000530, 0.002610, 0.007210, 0.043740, 0.003880, 0.007060, 0.061020, -0.002850,
0.023330, 0.054580, 0.028160, 0.015860, -0.011180, 0.033090, 0.030940, 0.012390, -0.010140, 0.033310,
0.031760, 0.034890, 0.005590, 0.043140, -0.023850, -0.002830, 0.005230, -0.003590, -0.001410, 0.015390,
0.039980, 0.022080, -0.011230, 0.031200, 0.026870, 0.028380, 0.034350, 0.011540, 0.016110, -0.003300,
0.047840, 0.053500, 0.015750, 0.027380, 0.037510, 0.052300, 0.019850, 0.010450, 0.019140, 0.022500,
0.004780, -0.003300, 0.003800, -0.003500, 0.014350, 0.036300, 0.006190, 0.022210, 0.056890, 0.015050,
0.013880, 0.027280, 0.080930, -0.015260, 0.008010, 0.048490, 0.064250, 0.009250, -0.014010, 0.008390,
0.038270, 0.041310, -0.004490, -0.003500, -0.028240, -0.003160, -0.001970, -0.004970, 0.004250, 0.011580,
-0.018850, 0.007600, 0.036480, 0.055820, 0.011590, 0.003390, 0.010340, 0.082540, 0.001580, -0.024470,
-0.076580, 0.015090, -0.019280, -0.041930, 0.052460, 0.026650, 0.008640, 0.000900, -0.006550, -0.099050,
0.000810, 0.002960, -0.000410, 0.002930, -0.002820, -0.015680, -0.035310, 0.013820, 0.049860, 0.000180,
0.010030, 0.003650, 0.043360, -0.016860, 0.027940, -0.035920, 0.032880, -0.014280, -0.034700, 0.088310,
-0.019490, -0.005340, -0.010250, 0.002540, -0.002730, 0.000000, -0.002540, 0.003410, 0.000380, 0.004930,
-0.034160, 0.026740, -0.004870, 0.011900, 0.001210, 0.012490, 0.002880, -0.002900, 0.018920, 0.028780,
-0.029140, 0.026970, 0.009740, -0.001660, 0.038390, 0.009110, 0.000310, -0.005090, -0.025950, 0.031680,
-0.000900, -0.000960, -0.000970, 0.001670, 0.004570, -0.020470, 0.035010, 0.029130, 0.014090, 0.000800,
-0.000940, -0.011410, -0.002160, 0.036050, 0.015410, 0.015660, 0.009230, 0.002010, -0.000910, 0.027560,
0.006420, -0.029360, -0.005300, 0.016050, -0.027670, -0.007230, 0.002380, 0.000550, -0.000800, 0.014670,
0.015150, 0.012420, -0.006930, -0.004330, 0.018410, 0.000870, -0.003480, 0.020310, -0.030230, 0.000020,
0.020550, 0.018990, 0.001360, 0.013960, -0.024410, 0.000010, 0.001510, 0.026720, -0.014520, 0.038040,
-0.000460, -0.003990, 0.004660, -0.003310, 0.014190, -0.002650, 0.029110, 0.002960, 0.030960, -0.009140,
0.017690, -0.034020, 0.033100, -0.038640, 0.026690, 0.014460, -0.008200, 0.013710, -0.012770, 0.006330,
0.031240, -0.018670, 0.007340, 0.016350, 0.008650, 0.003250, -0.000210, -0.004330, 0.000070, 0.013300,
0.026120, 0.012830, 0.009010, -0.014210, 0.011780, 0.018390, 0.007990, 0.032500, 0.006620, 0.036050,
-0.035170, -0.028200, 0.015420, 0.001370, 0.017390, -0.006760, -0.048490, 0.009630, 0.006920, 0.028690,
-0.003290, -0.001320, -0.004730, -0.003670, 0.009640, 0.018170, 0.006960, 0.020600, 0.014320, 0.013090,
-0.006190, -0.024520, 0.012260, -0.006990, 0.007300, 0.016780, -0.033160, 0.016720, 0.021750, -0.007600,
-0.001870, -0.033730, -0.008880, 0.025180, 0.028710, 0.005960, -0.003900, -0.001700, 0.002940, 0.005450,
0.022850, -0.002630, 0.040740, 0.002370, 0.003740, 0.000770, 0.017120, 0.019810, 0.005420, 0.005680,
0.029350, 0.015130, 0.015110, 0.020420, -0.047960, -0.023680, -0.018930, -0.008040, -0.035550, -0.007390,
0.004980, -0.003480, 0.001430, -0.003170, 0.005730,
-0.063600, 0.051690, -0.029390, 0.021150, 0.062180, 0.108470, 0.113090, 0.081890, 0.011270, 0.084520,
0.014050, -0.034520, 0.011610, 0.040770, 0.051700, 0.047350, 0.078480, 0.043430, 0.049580, 0.032280,
0.002070, 0.004720, 0.000900, -0.001910, 0.080650, 0.008560, 0.035110, 0.046920, -0.033390, -0.019700,
0.039710, -0.020800, -0.072780, -0.069760, 0.125780, 0.113670, -0.033280, 0.115490, 0.049140, 0.045130,
0.006670, 0.076820, 0.025950, 0.037120, 0.094500, -0.005160, -0.001880, 0.003490, -0.002120, 0.120370,
0.095070, -0.011890, -0.046960, -0.085780, 0.015160, 0.042590, -0.071120, -0.049320, 0.039380, 0.174340,
0.168470, -0.071950, 0.027220, 0.107190, 0.037720, -0.034100, 0.122870, 0.030030, 0.048920, 0.080310,
0.002560, -0.003360, -0.000090, -0.003540, 0.143720, 0.079420, 0.032320, 0.005730, -0.043280, 0.036640,
-0.061640, -0.028830, -0.088680, 0.034160, 0.112800, 0.142970, -0.071690, 0.029830, 0.123140, -0.000880,
-0.035990, 0.052170, 0.045270, 0.063800, 0.171770, -0.017840, -0.038930, 0.004790, 0.003110, 0.142680,
0.016510, 0.048920, -0.090080, -0.078360, 0.118570, -0.022390, 0.062010, -0.064170, 0.050230, 0.122300,
0.183260, 0.035040, 0.028710, 0.093830, 0.010740, 0.011610, 0.068780, 0.036100, 0.058940, 0.016050,
-0.033550, -0.007940, 0.003730, 0.002980, 0.121450, 0.021070, 0.030300, 0.027320, 0.009140, 0.049180,
0.074440, 0.045230, 0.010860, -0.006520, 0.030110, 0.138800, -0.036890, 0.082980, 0.080730, 0.094220,
0.077210, -0.065670, 0.013410, -0.019110, 0.021790, -0.012130, -0.031490, 0.003890, 0.002280, 0.033590,
0.016950, 0.021100, 0.052100, 0.126830, 0.146260, 0.022360, 0.091460, 0.081710, -0.009960, -0.157330,
-0.027160, 0.013810, 0.038800, -0.100790, 0.170580, 0.129260, 0.033110, -0.071020, -0.042070, -0.090010,
-0.038310, 0.028290, -0.000330, 0.004230, 0.021590, -0.033670, -0.006130, 0.136280, 0.173110, 0.049460,
0.038420, 0.005250, 0.334330, 0.045200, -0.193200, -0.113660, 0.092320, 0.104850, -0.122840, 0.333080,
0.159190, 0.034370, -0.016980, -0.132090, -0.280670, 0.000960, 0.003180, 0.001350, 0.000090, 0.015880,
-0.033730, 0.087380, 0.268910, 0.478720, 0.012270, 0.152150, 0.054000, 0.617490, 0.104270, -0.233530,
-0.173910, 0.088710, -0.025540, -0.163930, 0.409460, 0.209910, 0.075340, 0.052860, -0.059450, -0.277680,
-0.004410, 0.000060, 0.003020, -0.001260, -0.034930, -0.018020, 0.081390, 0.175460, 0.316560, -0.097460,
0.004130, 0.062290, 0.447520, 0.004180, -0.256200, -0.209210, 0.018020, -0.039610, -0.129910, 0.452100,
0.162190, 0.041370, 0.010950, -0.068490, -0.279500, 0.010870, -0.002090, 0.000490, -0.003800, -0.047650,
-0.027510, 0.029520, 0.055220, 0.078880, -0.012890, 0.096200, 0.058430, 0.077530, 0.126300, -0.090920,
-0.132160, 0.104770, -0.043470, -0.116180, 0.312330, 0.042320, 0.008930, 0.004560, -0.013980, -0.111710,
-0.001720, 0.004050, 0.001240, 0.001040, -0.070150, -0.051390, -0.032390, 0.034440, 0.074300, 0.031410,
-0.009180, 0.051820, 0.012830, -0.022030, -0.013550, -0.013640, 0.069510, 0.005060, 0.008720, 0.116400,
0.019720, -0.010650, -0.024030, 0.036020, 0.041270, -0.010090, 0.003150, 0.000920, 0.000020, -0.032360,
0.010700, -0.013200, -0.074590, -0.044950, 0.030140, 0.043300, 0.132670, -0.026990, -0.005290, 0.035960,
0.139460, -0.073460, 0.084580, 0.038140, 0.115950, 0.027730, -0.023860, -0.064870, 0.113000, 0.087040,
-0.002050, -0.017050, 0.001390, 0.003250, 0.016580, 0.004310, 0.031760, -0.035840, -0.067510, 0.184560,
0.124360, 0.038800, -0.071890, 0.007700, 0.162640, 0.123120, -0.021940, -0.015810, 0.096100, -0.017810,
0.017130, -0.005230, 0.035200, 0.014070, 0.133490, -0.002870, 0.005930, 0.001030, -0.002490, 0.044370,
0.134970, 0.050300, -0.071230, -0.059540, 0.062300, 0.033170, 0.057150, -0.129930, -0.025470, 0.090200,
0.057750, 0.018780, 0.045220, 0.146680, 0.035340, 0.135120, 0.024490, 0.011510, 0.024940, 0.092850,
-0.014950, 0.000270, 0.003090, -0.003920, 0.105930, 0.078330, 0.014450, -0.105530, 0.048770, 0.081740,
0.044350, -0.019360, -0.059170, 0.037440, 0.205620, 0.042420, 0.016030, -0.025410, 0.127140, -0.020240,
0.072620, 0.017900, 0.061000, 0.047400, 0.081530, 0.000670, 0.031280, 0.001760, 0.003810, 0.101100,
0.074600, -0.041830, 0.064410, -0.013820, 0.135650, -0.016870, 0.020890, 0.003670, 0.025710, 0.054520,
0.062040, 0.067050, 0.082560, 0.109750, 0.033430, 0.053500, -0.060420, 0.009210, 0.058450, 0.038340,
-0.001590, 0.020010, 0.001230, -0.001780, 0.054140,
0.059730, -0.004460, -0.032870, 0.042150, 0.049800, -0.037060, 0.102700, -0.010540, 0.057550, 0.065510,
0.091420, 0.008680, 0.090520, 0.083530, 0.009480, 0.046600, -0.070430, 0.060820, 0.092110, -0.030710,
0.076310, -0.006280, 0.003930, 0.002140, 0.174610, 0.055730, -0.090350, -0.015830, -0.022680, 0.024800,
-0.022880, 0.166720, -0.085470, -0.030630, 0.025580, 0.056350, -0.092490, 0.075320, 0.073490, -0.099130,
-0.035290, -0.073920, 0.052650, 0.008160, -0.028100, -0.003690, -0.003820, 0.003360, -0.002830, 0.175560,
0.077020, -0.064340, -0.030080, -0.003570, -0.018300, 0.071520, 0.035930, -0.040480, 0.017220, 0.026920,
0.076750, -0.105610, 0.048760, 0.004390, -0.086240, -0.011670, -0.015170, -0.013120, 0.033520, -0.017030,
0.006470, 0.000090, -0.004120, -0.001290, 0.124200, 0.194930, -0.036640, -0.030830, 0.082070, 0.058680,
0.135820, 0.098730, -0.070080, 0.073660, 0.052610, 0.188850, 0.012190, 0.121960, 0.148230, -0.038150,
0.006060, 0.057600, 0.100500, 0.030630, 0.042600, 0.021390, -0.044020, -0.000700, -0.004800, 0.251070,
0.271750, -0.005740, 0.026740, 0.063770, 0.122550, 0.037810, 0.135810, -0.148840, -0.107450, 0.085880,
0.138910, -0.054980, 0.139690, 0.098200, -0.135570, -0.057660, 0.012470, 0.101430, -0.030330, -0.084350,
-0.043060, -0.020630, 0.000520, 0.003110, 0.163210, 0.278990, 0.010540, 0.022060, 0.047010, 0.001230,
0.127170, 0.083950, -0.118780, -0.187990, 0.062720, 0.181480, 0.001700, 0.073470, -0.030540, -0.011070,
0.085850, -0.044900, 0.133350, 0.013420, -0.170630, 0.019460, -0.080320, 0.000040, 0.000010, 0.255770,
0.195800, -0.037040, 0.025980, 0.009520, -0.002100, 0.144350, 0.085390, -0.151090, -0.108410, 0.007670,
0.161600, 0.003450, 0.138100, -0.035710, -0.006660, 0.076190, -0.085570, 0.116710, -0.016200, -0.253960,
-0.016160, -0.009610, 0.004020, -0.002750, 0.029110, 0.227350, -0.000490, 0.112200, 0.073760, -0.144820,
0.085240, 0.181490, -0.151750, -0.185200, -0.005120, 0.082360, -0.000580, 0.094990, -0.028420, -0.031050,
0.023190, -0.154950, 0.048580, -0.078290, -0.312240, 0.021060, -0.008150, -0.003100, -0.003550, -0.088430,
0.128050, -0.095650, 0.017140, -0.000730, -0.067550, 0.036160, 0.082800, -0.135440, -0.204240, -0.162550,
0.039680, -0.006230, 0.110440, -0.140940, -0.253260, 0.000200, -0.332660, -0.058680, -0.117380, -0.335120,
-0.013680, -0.013760, 0.002420, -0.004490, -0.285670, 0.168400, -0.056230, 0.002090, -0.045470, -0.129710,
0.111040, 0.078020, -0.090410, -0.091200, -0.133940, 0.060450, 0.020970, 0.112330, -0.098970, -0.364250,
-0.164390, -0.246590, -0.007680, -0.033890, -0.353700, -0.032660, 0.002410, 0.000970, -0.003020, -0.402200,
0.113140, 0.005640, -0.031480, -0.088110, -0.152140, 0.134160, 0.034520, -0.186540, -0.036720, -0.079660,
0.106290, 0.049240, 0.086340, -0.072100, -0.376740, -0.196220, -0.132530, 0.022870, -0.029270, -0.239560,
0.026690, 0.005280, -0.001530, 0.001630, -0.386760, 0.260560, 0.033520, -0.010850, -0.127500, -0.121240,
0.106550, 0.008210, -0.108640, 0.016130, 0.001240, 0.136850, 0.186870, 0.121930, 0.088550, -0.264120,
-0.181000, -0.117510, -0.001220, -0.011150, -0.158880, 0.005210, 0.002560, 0.000550, -0.001800, -0.297830,
0.207040, 0.125780, 0.031400, -0.165430, -0.005420, 0.026740, 0.003260, -0.125040, 0.003700, -0.001160,
0.177230, 0.093460, 0.085630, 0.006110, -0.186710, -0.087640, -0.117290, 0.043130, 0.054030, -0.082730,
-0.025410, -0.006150, 0.001620, 0.002290, -0.249830, 0.173140, 0.062590, -0.018840, -0.083840, -0.038530,
0.153430, -0.009430, -0.067090, 0.048610, 0.035970, 0.120550, 0.078150, 0.122280, -0.035210, -0.115020,
-0.068710, -0.140010, -0.078160, 0.063600, -0.037350, 0.045740, 0.023550, -0.003700, -0.001080, -0.281730,
0.116260, 0.003300, 0.005240, -0.174360, -0.008680, 0.053600, -0.006080, -0.105770, 0.080760, 0.203060,
0.169580, 0.025040, 0.134640, 0.023180, -0.112300, -0.117890, -0.151920, -0.007530, 0.010570, 0.001040,
0.036510, 0.005690, 0.003920, 0.003900, -0.076940, 0.167600, 0.052720, -0.069100, -0.063150, -0.154650,
0.037360, -0.049310, -0.009930, -0.044100, 0.077570, 0.130140, 0.037270, 0.100570, 0.039250, -0.030800,
-0.147620, -0.172550, -0.042510, 0.001590, -0.024310, 0.002260, 0.004490, -0.000950, -0.003360, -0.095940,
0.185770, -0.021620, 0.023750, -0.067000, -0.005150, 0.000680, -0.061510, -0.067260, 0.014750, 0.103670,
0.061890, -0.004710, -0.029350, 0.025770, -0.061010, -0.079110, -0.117640, -0.132400, 0.058760, 0.013530,
-0.001850, 0.003040, 0.000770, -0.004180, -0.049950,
0.044080, 0.023840, 0.020070, 0.087900, 0.101300, -0.003450, -0.023310, 0.166030, -0.019640, 0.096890,
0.137490, -0.112410, 0.085610, 0.072020, 0.030110, 0.085630, 0.067470, 0.136510, 0.171110, 0.074230,
0.025790, 0.002770, -0.004080, 0.001790, -0.031580, 0.130490, 0.076160, 0.044180, 0.145730, 0.003200,
0.060050, 0.146040, 0.124650, 0.138240, -0.004830, 0.065590, -0.017930, -0.023660, 0.067550, -0.024920,
0.085250, 0.080840, 0.037910, 0.072570, 0.127890, 0.002510, 0.012060, -0.002270, -0.000950, -0.049680,
0.190920, 0.054850, 0.025990, -0.013350, 0.109280, 0.106830, -0.030550, 0.027370, -0.056450, 0.041510,
-0.020990, 0.032040, 0.035530, 0.045930, 0.179180, 0.129990, 0.059700, -0.009530, -0.017310, 0.100370,
0.032030, -0.001430, -0.004110, 0.004920, -0.087770, 0.118540, 0.106100, 0.045770, 0.044100, -0.080480,
0.044330, 0.022450, 0.111480, 0.080840, 0.024410, 0.114610, -0.000460, 0.022960, 0.060310, 0.076190,
0.134640, 0.005060, -0.094060, -0.008260, 0.023190, 0.030830, -0.005300, -0.003690, -0.000740, -0.025110,
0.134710, -0.044520, -0.022270, 0.143450, 0.082690, 0.045230, -0.026780, -0.007030, 0.059110, -0.000110,
0.040540, 0.054090, -0.044410, 0.071010, 0.038400, 0.061340, 0.027550, -0.043840, 0.020770, 0.016370,
0.019260, 0.013760, 0.001520, -0.002560, 0.043690, 0.011810, 0.119570, -0.066260, 0.086680, 0.072550,
0.098990, 0.011400, 0.165030, 0.031690, 0.093350, 0.115970, 0.167910, 0.019760, 0.063160, 0.147200,
0.088130, 0.052390, 0.070860, 0.046490, 0.103650, -0.014590, -0.009050, -0.003620, 0.000510, 0.023620,
0.065390, 0.108840, 0.087790, 0.108150, 0.060990, 0.120890, -0.047790, 0.176860, -0.034170, 0.206460,
0.038600, 0.065180, -0.086630, 0.053560, 0.004080, 0.038170, 0.067080, 0.140700, 0.081820, 0.056900,
0.024930, -0.005650, 0.000350, -0.000620, -0.020610, 0.030610, -0.094960, 0.021850, 0.065270, -0.098830,
0.095940, 0.056230, 0.078730, -0.035520, 0.115850, -0.069360, 0.055960, -0.011140, -0.010990, -0.081370,
0.062930, 0.086190, 0.045680, 0.056400, 0.079630, 0.010160, -0.003510, -0.004500, -0.001440, -0.022650,
-0.236050, -0.046640, -0.087480, -0.087760, -0.122280, -0.012810, -0.175360, -0.003350, -0.167140, -0.112190,
-0.244100, -0.199700, -0.248640, -0.231590, 0.045220, -0.129990, -0.113350, -0.061910, -0.209600, -0.223630,
-0.004620, -0.005680, 0.002560, 0.002500, -0.148080, -0.091980, 0.038510, -0.019840, -0.071170, 0.002450,
-0.025530, -0.148510, 0.019590, -0.163950, -0.071650, -0.130570, -0.065720, -0.018520, -0.105690, -0.080450,
-0.059630, -0.100210, 0.042680, -0.058760, -0.154590, 0.011930, -0.000550, 0.000710, 0.004160, -0.085010,
-0.004460, -0.012980, -0.050320, -0.078840, 0.009740, -0.071830, -0.048110, -0.043770, -0.001340, 0.099440,
-0.089190, 0.011220, 0.003640, -0.072850, 0.015930, -0.038960, 0.051700, -0.000060, 0.008590, 0.038010,
0.004180, 0.003130, -0.004710, 0.004840, 0.035050, -0.073410, 0.036730, -0.098540, -0.051560, 0.024710,
0.055410, -0.033160, 0.032290, 0.012440, 0.057590, -0.049050, -0.054890, 0.110740, -0.009740, -0.051780,
-0.048990, 0.065050, 0.059680, 0.069640, 0.038060, 0.001260, -0.002090, -0.001520, -0.004520, -0.019770,
0.064930, 0.091830, -0.044920, 0.029180, 0.042980, -0.043310, -0.007640, 0.072060, -0.019580, 0.116810,
0.062880, -0.009330, 0.035250, 0.054240, -0.017190, 0.016190, 0.068650, 0.119620, 0.016660, 0.097870,
0.052280, 0.005300, 0.003160, -0.003910, 0.072340, -0.011680, 0.019400, 0.028810, 0.021440, 0.011190,
-0.034270, -0.036750, 0.014250, -0.042000, 0.065520, 0.012870, 0.069610, 0.079530, 0.005460, 0.001750,
-0.032760, 0.106510, 0.053200, 0.040780, 0.183650, 0.000770, -0.004520, 0.000420, -0.004210, 0.032210,
-0.003090, 0.049380, 0.067090, 0.037880, -0.053520, 0.036360, 0.031460, 0.064890, -0.106000, 0.120040,
-0.048280, 0.045470, 0.101380, 0.060280, -0.004500, 0.010790, 0.031430, 0.030670, 0.154700, 0.021320,
0.002670, -0.007010, 0.001300, 0.002100, 0.012270, -0.013330, -0.100550, 0.123580, -0.046260, -0.019700,
-0.036920, -0.074650, -0.002530, 0.052540, -0.012850, -0.077690, -0.042150, 0.121930, 0.048130, 0.018480,
0.058650, 0.041470, 0.037990, -0.016440, 0.079810, 0.052420, -0.007010, 0.003890, -0.001560, 0.026030,
-0.061940, 0.112650, 0.060510, -0.057050, -0.072180, -0.005640, -0.038290, 0.143800, 0.040940, -0.003820,
-0.076920, -0.081860, 0.029090, 0.053620, -0.037040, 0.078240, 0.138690, -0.047150, -0.013840, 0.022680,
0.052790, -0.007810, -0.004820, -0.002130, 0.035650,
0.135080, 0.033940, -0.033650, 0.082310, -0.003020, -0.013690, 0.004130, 0.044460, 0.092640, 0.128010,
0.029830, -0.073800, 0.222810, 0.112520, 0.095320, -0.041830, 0.076700, -0.046140, -0.101260, 0.021640,
-0.003770, -0.050350, 0.001050, 0.003760, 0.262700, 0.030590, 0.044640, -0.024470, 0.137370, -0.027290,
-0.015070, 0.045050, 0.044090, 0.020870, 0.126310, 0.038500, -0.000790, 0.094440, 0.006950, -0.028470,
-0.004560, -0.025330, 0.030500, 0.114120, 0.082790, -0.034160, -0.009220, -0.001530, -0.000980, 0.178020,
0.072320, 0.066530, 0.065620, -0.005160, 0.135640, -0.040720, 0.074990, -0.123910, -0.088640, 0.216480,
0.093630, -0.030650, 0.200700, 0.121890, 0.014150, 0.009030, -0.065760, 0.051260, -0.024030, 0.051440,
-0.017850, -0.002060, -0.002600, 0.002800, 0.243120, 0.132610, 0.013230, -0.058210, -0.076350, 0.080030,
-0.059430, 0.131290, -0.007940, -0.064510, 0.125450, 0.034920, -0.099800, 0.064530, 0.079550, -0.070030,
0.000920, -0.142980, 0.066720, 0.042370, -0.016400, 0.023530, -0.017730, -0.004000, 0.001340, 0.203900,
0.144490, 0.048180, 0.040770, -0.040670, 0.066880, 0.021250, 0.078490, -0.025660, -0.018800, 0.007130,
0.089040, -0.100240, 0.001800, -0.000220, -0.014070, -0.009790, -0.102230, 0.053930, 0.106580, -0.145580,
-0.001040, -0.093380, -0.002550, 0.002890, 0.139980, 0.231150, 0.009130, 0.046250, 0.018220, -0.048610,
0.078550, 0.071320, -0.115680, -0.083350, 0.023790, 0.053120, -0.006600, 0.076510, -0.015000, 0.037780,
0.029910, -0.100460, 0.067020, 0.037930, -0.208520, -0.126960, -0.023340, -0.003550, 0.000300, 0.281340,
0.140000, -0.033200, 0.114880, 0.272250, -0.062080, 0.179950, 0.080260, -0.057730, 0.017750, -0.143790,
-0.006320, 0.080680, 0.013730, -0.171880, 0.069570, 0.016930, -0.129660, 0.006190, -0.047070, -0.420360,
-0.047550, -0.039650, 0.003080, -0.002450, -0.093150, 0.105970, 0.040580, 0.319920, 0.224860, -0.062880,
0.093200, -0.020580, 0.123360, -0.003040, -0.312980, -0.147570, 0.058220, -0.117290, -0.226340, 0.254610,
0.037940, -0.229080, -0.175130, -0.146700, -0.421570, -0.034070, 0.014730, 0.002340, -0.001920, -0.159000,
0.161660, 0.068380, 0.585780, 0.498750, -0.098890, 0.238290, 0.011510, 0.455610, 0.061950, -0.404590,
-0.038100, 0.191600, 0.153490, -0.143580, 0.607160, 0.012100, -0.167310, -0.128740, -0.214750, -0.463020,
-0.048710, -0.004140, 0.003850, -0.002160, -0.104560, 0.171500, 0.191230, 0.178540, 0.303020, -0.125870,
0.152110, 0.079390, 0.206290, -0.051650, -0.310610, -0.036340, 0.162360, 0.013700, -0.132450, 0.300550,
0.128610, -0.163640, -0.055830, -0.030420, -0.480080, -0.043020, 0.004980, -0.001130, -0.000710, -0.240250,
0.225050, 0.022210, 0.059580, 0.009840, -0.106020, 0.199520, 0.154600, 0.098010, -0.027760, -0.138250,
0.055790, 0.135220, -0.016170, 0.021710, -0.073810, -0.100100, -0.121390, -0.029890, -0.013080, -0.339500,
-0.089190, -0.000800, 0.004800, 0.004940, -0.279250, 0.179710, 0.177590, 0.059510, -0.074970, 0.071830,
0.204590, -0.013170, 0.000320, -0.023560, 0.041320, 0.127210, 0.130240, 0.121080, -0.005290, -0.016430,
-0.141430, -0.109220, -0.030720, 0.101090, -0.172500, -0.065230, 0.075810, -0.000560, 0.003270, -0.134470,
0.159830, 0.031940, -0.084420, -0.122700, -0.082930, 0.168160, 0.051900, -0.136520, 0.048910, 0.217480,
0.098560, 0.008190, 0.047700, 0.150070, -0.034010, -0.166550, -0.067610, -0.057610, 0.079650, -0.098140,
0.010030, 0.007080, -0.004210, -0.001080, 0.082130, 0.164650, -0.012460, -0.059600, -0.035960, -0.052860,
0.097090, -0.013450, -0.137200, -0.040170, 0.266670, 0.191960, -0.020740, 0.164200, 0.170810, -0.048070,
-0.184500, -0.149870, 0.017440, 0.010990, -0.046740, 0.026390, 0.025010, 0.003320, -0.002770, 0.197360,
0.197790, 0.125270, -0.058990, 0.021940, -0.037180, 0.110240, 0.086400, -0.007500, -0.021960, 0.151920,
0.213650, 0.161420, 0.079600, 0.129370, -0.024920, -0.099700, -0.080930, 0.060410, 0.044520, -0.009890,
-0.077740, 0.011760, -0.004670, -0.004640, 0.112090, 0.198450, 0.041250, 0.076230, 0.036390, 0.009200,
0.052080, 0.019730, -0.092510, -0.013780, 0.013360, 0.201740, 0.090020, 0.134770, 0.119450, 0.021000,
-0.148780, -0.070520, 0.052760, 0.080660, 0.051960, -0.118210, 0.020570, 0.002350, -0.001310, 0.062670,
0.079970, 0.175230, -0.011430, -0.024500, -0.010580, -0.055320, -0.057190, -0.138070, -0.011730, 0.005770,
0.037240, 0.054740, 0.111060, -0.027860, -0.013650, -0.070720, -0.109280, 0.042370, 0.019470, -0.103390,
0.041870, 0.007630, 0.003210, 0.000230, 0.112360,
-1.730210, -0.507590, -1.603260, -1.202610, -0.500100, 0.637000, 1.525740, 0.777380, 1.067590,
1.175280, 0.228980, -1.157080, -0.793210, 0.355580, -1.560010, -1.456390, 1.026640, -1.389680,
1.467040, -0.857330, 1.482150, 1.373950, -0.835790, 0.897480, -0.323890, -1.524230, 1.022880,

